{
  "version": 2,
  "modelType": "mlp_tanh_v1",
  "featureOrder": [
    "aiHp",
    "opponentHp",
    "hpLead",
    "lethalPressure",
    "expectedDamageNext",
    "initiativeValue",
    "auroraEconomy",
    "rerollEconomy",
    "statusValue",
    "characterSynergy",
    "roundTempo",
    "variancePressure",
    "selfPoison",
    "oppPoison",
    "selfResilience",
    "oppResilience",
    "selfPower",
    "oppPower",
    "selfThorns",
    "oppThorns",
    "selfForceField",
    "oppForceField",
    "selfCounter",
    "oppCounter",
    "selfHack",
    "oppHack",
    "selfUnyielding",
    "oppUnyielding",
    "selfAscension",
    "oppAscension",
    "isAttackSelect",
    "isDefenseSelect",
    "currentWeatherId",
    "currentWeatherType",
    "weatherStageRound",
    "roundsToNextWeatherGate",
    "weatherCandidateCount",
    "weatherTempoValue",
    "weatherComebackValue",
    "weatherComboValue",
    "sellHpWindowValue",
    "nextStageWeatherExpectation"
  ],
  "normalization": {
    "mean": [
      14.023879500367377,
      15.023879500367377,
      -1.0,
      -0.2905951506245408,
      -8.894562821454812,
      0.07421013960323292,
      -0.06796473181484203,
      0.13886847905951505,
      -0.09845701689933872,
      0.3635562086700955,
      0.07421013960323292,
      0.060249816311535635,
      0.1002939015429831,
      0.12196914033798678,
      0.02645113886847906,
      0.0440852314474651,
      2.6880969875091845,
      2.645848640705364,
      0.07714915503306392,
      0.005510653930933138,
      0.0,
      0.0,
      0.0106539309331374,
      0.011021307861866276,
      0.0,
      0.05988243938280676,
      0.0,
      0.0,
      0.13776634827332843,
      0.14401175606171931,
      0.5371050698016164,
      0.4628949301983835,
      13.82329169728141,
      1.9761204996326232,
      5.3894195444526085,
      0.852314474650992,
      6.239897134459956,
      5.582292432035268,
      8.146583394562821,
      1.3965099191770758,
      1.4217487141807494,
      7.396792157960416
    ],
    "std": [
      8.601843689230751,
      9.258620857788264,
      10.49925647274744,
      0.4883428905862993,
      11.466924282870945,
      0.9972426260344415,
      3.7451132266346545,
      2.2221835706779824,
      29.638971489864964,
      0.6346082975873143,
      0.9972426260344415,
      0.6695099565883569,
      0.3954274674671287,
      0.41619768898252774,
      0.28045276582340495,
      0.36098779302161826,
      6.884482821975957,
      7.111286010119565,
      0.8319039442523086,
      0.17241567191033544,
      1.0,
      1.0,
      0.10266657045411294,
      0.10440229228747921,
      1.0,
      0.23726890406534784,
      1.0,
      1.0,
      0.3446545829620729,
      0.35110165220024125,
      0.49862131301722074,
      0.4986213130172207,
      8.907723603102523,
      0.9050125399442409,
      2.268949534970112,
      0.6960132135173716,
      2.458647499743153,
      4.00128866526968,
      7.186875570436782,
      2.513152532539951,
      3.7742034245818137,
      5.3240490721797045
    ]
  },
  "layers": [
    {
      "weights": [
        [
          0.06473296598124803,
          -0.08301737778618791,
          -0.032931131913182345,
          -0.0305925703901544,
          0.05871027978098905,
          0.06134090960496235,
          0.048198530724913154,
          -0.06994809315239076,
          -0.007796109693491069,
          -0.09924808446552318,
          -0.07589792916302732,
          -0.02971710969663719,
          -0.11433553564869134,
          -0.0641882747169802,
          0.009544103785877374,
          -0.005977060035638278
        ],
        [
          -0.1255713131798687,
          0.024904482223324687,
          0.04567834909874794,
          -0.09992980329317255,
          0.0068893204810349514,
          -0.046457014629164156,
          0.0006926867101041552,
          -0.052996594963704714,
          0.06656449868127204,
          0.012705478214823613,
          -0.009811421319797202,
          0.0018727368275594982,
          0.12082269647548649,
          0.05182899801790952,
          0.07394443023678897,
          0.06097483644507704
        ],
        [
          0.11184344632669416,
          0.06058107001115278,
          -0.013546183446009961,
          0.03803725123413611,
          0.1068810794332483,
          0.11497965352094365,
          0.0228019106258178,
          0.0073399181211113735,
          0.04239010473699266,
          -0.1266032938613107,
          -0.1176446322191325,
          -0.11729883391026223,
          -0.15635871831405093,
          -0.08693341672180575,
          -0.09754104138245571,
          -0.06766835125346128
        ],
        [
          0.09698451856808425,
          -0.03169999211336264,
          -0.016859370945518048,
          -0.027704179962278187,
          -0.006583208662866609,
          0.11850196048772789,
          0.0014238402831808416,
          0.01379941997692531,
          -0.04605245109942562,
          0.001983022874494406,
          -0.10601413037094318,
          -0.07110006260143145,
          0.011106658974484259,
          -0.005897017358837617,
          -0.01528291166790908,
          0.008602239543266858
        ],
        [
          0.16860489445609872,
          0.035208102037987556,
          -0.040702665127348735,
          -0.05290523508563258,
          0.012252730273194307,
          0.0320581237193935,
          -0.07212321205621136,
          0.07336457397509143,
          0.06677005694496775,
          -0.07058481071703851,
          -0.0483890588371307,
          -0.08853703472205843,
          -0.014340834537210287,
          -0.04880342958898958,
          -0.0754183390645043,
          -0.06764825920503863
        ],
        [
          0.010165127924333215,
          -0.040329674523563376,
          0.015066273796882655,
          0.06376248548204207,
          -0.01766533985630785,
          -0.0546120534546582,
          0.07777191811331009,
          -0.002898698192214948,
          -0.06378322532596394,
          -0.07498418302886418,
          -0.06482155556164598,
          0.02345480258075102,
          0.041252741872921,
          -0.009785841277506577,
          -0.0669023917176262,
          -0.018435925318226694
        ],
        [
          0.02861451827863689,
          0.006214785477632802,
          0.07539668960551467,
          0.05067720686930699,
          -0.09139203195914253,
          0.009003213343439788,
          0.03610213268821267,
          0.0033273067434869087,
          -0.03857252827694324,
          0.03401564699095518,
          -0.03345143003966213,
          0.010383408438377123,
          0.021862516463527566,
          0.0870077443860953,
          0.07160749578547207,
          -0.030570693086395043
        ],
        [
          -0.037020539608905015,
          -0.05167873900510795,
          0.06732160625482916,
          0.052008352482848574,
          -0.04844204762029534,
          -0.012532459613474245,
          0.02382234511321327,
          -0.06287287847225131,
          0.04209391629653199,
          0.016187650043682413,
          0.06435278645322151,
          0.031923806822453694,
          -0.059378991479664654,
          -0.011099868997108357,
          -0.06027711568207672,
          0.078854312768174
        ],
        [
          0.21603904853334263,
          0.04154927168632699,
          -0.0270514876596595,
          -0.04492633882033819,
          0.11346239860446464,
          0.17345945878340085,
          -0.09598071867126308,
          -0.0033683235687259187,
          -0.06160385845774244,
          -0.0010863282040633761,
          -0.04419254642879777,
          -0.1453867476821941,
          -0.10610377862789933,
          -0.04415269075390432,
          -0.07685263837111571,
          0.03127757147889745
        ],
        [
          0.11472308763021347,
          -0.055050080201135256,
          0.008119060989569875,
          0.06136932745519303,
          0.004447070613655348,
          0.05513617675577378,
          0.0510550872771204,
          0.030179306871959757,
          -0.003665092605806853,
          -0.04133852082562824,
          -0.1331135977879794,
          -0.12311378777045741,
          -0.11286013801093858,
          -0.0349623673193078,
          -0.08569906516100372,
          -0.07633461440026534
        ],
        [
          -0.06829487978032571,
          0.018608141275982846,
          -0.04183679922909915,
          0.06497802618662622,
          0.05597224336182804,
          -0.07836619893763895,
          -0.04375335742686821,
          0.022613539346955626,
          -0.04405084209450086,
          -0.0613529073008177,
          0.06731686207515587,
          0.014430330840302139,
          -0.009852592215266182,
          0.04820767192106454,
          0.0521326949407236,
          -0.04902942486137216
        ],
        [
          -0.15417280281626017,
          0.003218228376098747,
          -0.01796451501423606,
          -0.03246261163316829,
          -0.012635335661172668,
          -0.06008988540305177,
          0.10960664982156179,
          -0.05835396502613067,
          -0.02466898169396232,
          0.022735798870928466,
          0.1218762405749545,
          0.03350958627800017,
          0.0288369635550488,
          0.03081789702047907,
          0.0160145390978936,
          -0.007085155983823955
        ],
        [
          -0.012743482656282636,
          0.06623528841976442,
          -0.008769613904738264,
          0.058630411010602325,
          0.014762341583045183,
          -0.04706987672064464,
          0.07670737304852435,
          0.053872686144068156,
          0.07591823213183965,
          0.06046512037343645,
          0.04446491475436887,
          -0.05570527079624491,
          -0.0195720679336938,
          -0.0517886988233228,
          -0.02135178633803342,
          -0.07487442172864262
        ],
        [
          -0.008273005234099086,
          0.07703083093728852,
          -0.037420488424335804,
          0.04384274661936686,
          -0.0055759501385734805,
          -0.00017004485786093924,
          0.0717579664616812,
          0.07885369453309045,
          0.009153478587639489,
          0.031494131005256394,
          -0.05718368159351699,
          -0.02558035591230547,
          0.06677088227989517,
          0.011768604458339452,
          0.005191698401843734,
          0.039196122178794576
        ],
        [
          -0.09097779973422777,
          0.016028666121586987,
          0.00016316399033480773,
          0.0475906370182673,
          -0.06547444580579868,
          0.05723903149713118,
          -0.05840503456962666,
          -0.051628685302251724,
          0.0135204547736629,
          0.04252628988049351,
          -0.01945477978693842,
          -0.03800431068066044,
          0.08150640334212339,
          -0.02840557863530792,
          0.028395376064963253,
          0.03051063873250288
        ],
        [
          -0.01145372373681037,
          0.013291831539632471,
          0.0036308084714316855,
          0.07057568603064202,
          -0.04605661104206664,
          0.0354601631753426,
          -0.04247726995605194,
          -0.016436336753412936,
          0.027513459352764363,
          -0.033943922419260836,
          -0.03240896864997558,
          0.03688841426486697,
          -0.0712571116687447,
          -0.00800970379422774,
          0.07877493924038245,
          0.07853512323749463
        ],
        [
          0.04362111216126172,
          -0.053459288441330514,
          -0.035611798970778506,
          0.08806214578141769,
          0.10016034440349858,
          0.13074110491976978,
          -0.04433337072287803,
          -0.05365991334544876,
          0.05850085357415595,
          0.001066323702242192,
          -0.039646805889146715,
          0.015580308905567702,
          -0.05303734274117496,
          -0.11586685567029117,
          0.021253005992217806,
          -0.053797546904679604
        ],
        [
          -0.04840320964277628,
          0.07593715422931399,
          -0.061021904006644166,
          -0.07128775361842103,
          -0.08418231870955996,
          -0.04021324718470837,
          -0.02623220338503146,
          0.020847179707225955,
          0.03167473299403909,
          -0.03084335618476173,
          0.06590732150545404,
          0.0006060382484430624,
          0.040599328715273705,
          0.08842808487454705,
          0.0706596183016787,
          -0.05644169344212992
        ],
        [
          0.01390602007399777,
          -0.03640859583759574,
          -0.07954000616451029,
          0.04669016862516535,
          0.02789998812379639,
          -0.02112037218593542,
          0.040541718157511494,
          0.011249929179625631,
          -0.01099758221596327,
          -0.07442970392373317,
          -0.061936872857105515,
          0.056012089246484695,
          0.056758746897626576,
          0.003440000161685454,
          0.052992560875520116,
          0.005912103438014915
        ],
        [
          -0.05307541239899042,
          -0.05949849881244381,
          -0.030781786774368144,
          0.06465731415468683,
          0.04658711147287554,
          0.056505445843598456,
          0.06330504396492555,
          -0.046283423735679015,
          -0.04012131141279183,
          -0.06358930824146461,
          0.044787596255441264,
          0.05823253180047551,
          -0.006003973763244483,
          0.02393403001661187,
          -0.055585612605328426,
          0.06820366465409126
        ],
        [
          0.058336911395194244,
          0.07619296526895407,
          0.04972347519046351,
          0.06102659274613191,
          -0.0760341820962898,
          0.037850315480813135,
          -0.026850325128571412,
          0.0689305417677321,
          0.048357622229942235,
          0.058250244540044696,
          0.04971989065190223,
          -0.03731108646488448,
          0.045979921461675385,
          -0.06270469977552687,
          0.05954668526497435,
          0.05737492021404507
        ],
        [
          -0.04441060519269369,
          0.05065385689550862,
          -0.006351482451369267,
          -0.03116946122582391,
          0.04725527986445789,
          -0.043584722014756744,
          -0.07621369044776775,
          -0.049099233867566615,
          -0.027478087808366955,
          0.058296470724845825,
          0.07470225664773779,
          -0.035340001164500576,
          0.022637078177220438,
          -0.01605145850239026,
          0.07698394995172163,
          0.005794517196595503
        ],
        [
          0.06746242315647759,
          -0.06122139584901775,
          0.07523619564817037,
          -0.05371399211510192,
          0.07381026051864183,
          -0.042069703799274556,
          -0.06243456948480917,
          -0.010661529596310932,
          0.03668510862888126,
          -0.03260371655507659,
          0.018920969173293965,
          0.007697244451671774,
          -0.012925153774809297,
          0.01266802514528704,
          -0.04104557029858296,
          0.03537060131257775
        ],
        [
          -0.08224812932795281,
          0.06827616937940888,
          0.006101658840427061,
          0.03339339954571802,
          0.039178455877380634,
          0.023467679268504068,
          -0.02203270742084624,
          -0.06925585275967866,
          0.02636745611753167,
          -0.030155257911233954,
          -0.029802675489052723,
          0.059495756293744484,
          0.03962989582992661,
          -0.03138117177161533,
          -0.03346177332240932,
          -0.01391760701705326
        ],
        [
          -0.015615938070764057,
          -0.03269516759584848,
          -0.05963395215053549,
          -0.012728586596334676,
          0.07045818731682928,
          0.02837087124363727,
          0.06444888731721322,
          0.018482386552220884,
          -0.03184802006950955,
          0.007669954101711715,
          -0.079935049648434,
          -0.03409380530097165,
          -0.011217896001626468,
          0.012797564991309116,
          0.024752899792491456,
          -0.0056018895604777325
        ],
        [
          -0.08572542554994725,
          -0.03930656711216826,
          -0.0057552429525460766,
          0.046758346547974304,
          0.0122419824141579,
          -0.09897188164819665,
          -0.046515934247378994,
          -0.0010557961584014386,
          0.016565843500348097,
          0.0038658822114188717,
          0.09525067917933429,
          0.08734087520965389,
          0.08760488105208271,
          -0.010249684354200452,
          -0.015841466152397676,
          -0.05499556218238611
        ],
        [
          -0.04082519294746398,
          -0.003978184924991177,
          0.05595803113995711,
          -0.06834748333046894,
          -0.013689438240364907,
          0.0207624609180342,
          -0.04889036212164651,
          0.031416680078480794,
          -0.0008996529583300966,
          -0.04096248966744979,
          0.024969281777885446,
          -0.07911282909791492,
          0.04015431625895566,
          0.04320739017184401,
          -0.06294603254983377,
          -0.011976608969162542
        ],
        [
          -0.05185813092695493,
          0.07327456676472636,
          0.0028732400709985256,
          -0.07196505837749745,
          -0.04012827525440454,
          0.05573381557626557,
          -0.006966107924772397,
          0.048226656275562316,
          0.0268124372138165,
          0.07806279249063168,
          0.015272370955107153,
          0.07200633735090496,
          0.06262814812966992,
          0.01802437164188206,
          0.03508383380415474,
          0.000764506371904311
        ],
        [
          0.14937281355033066,
          -0.0011370965784997101,
          0.06575099149368958,
          0.06311609834992155,
          0.03776384746042256,
          0.04068927287722975,
          -0.06648847268908165,
          0.02665368568469799,
          0.048540821644736956,
          -0.03630475164209747,
          -0.0476956672021657,
          -0.10380781627787729,
          -0.140742494896583,
          -0.07384017696462167,
          -0.07178535513623108,
          -0.05856541651180364
        ],
        [
          -0.0709111361772979,
          -0.050280647558903734,
          -0.04532317113116957,
          0.011014151211151913,
          -0.0017126635874975295,
          -0.12862421297477067,
          0.006574872112664377,
          0.00476394656781812,
          -0.018864995049602113,
          -0.014693886804973553,
          0.04119064748718913,
          0.11457704723332111,
          0.07075446786471451,
          0.061009938655146354,
          0.08015312372689719,
          0.06463545426822746
        ],
        [
          -0.018792808913337043,
          -0.08142495851379411,
          -0.022186076211391872,
          0.04066684411514747,
          0.05498225141228531,
          0.06284547923539353,
          -0.014790693705135912,
          0.035179601856038835,
          0.00905243828364322,
          0.01399761113377693,
          -0.047079225325940506,
          -0.041829102552313556,
          -0.015746200257691398,
          -0.07268746477398155,
          -0.023286097710198142,
          0.02916769044526337
        ],
        [
          -0.015655559396207164,
          -0.051224511120205575,
          -0.006750091483946542,
          -0.05969037654066005,
          0.021130534434621755,
          -0.06598199277535449,
          -0.015122660059739834,
          0.014725622464413137,
          -0.07733494131177905,
          0.02536274677831541,
          -0.055922665625358206,
          -0.009191684860014744,
          -0.06647450221666633,
          -0.022011945764441657,
          -0.04906752982422363,
          -0.028209660059718054
        ],
        [
          0.04570616870517057,
          -0.019210197948212337,
          0.04013184649464543,
          0.05335126197118619,
          -0.03778052061346355,
          -0.057470342461150986,
          -0.07628612008631695,
          0.006920146130485949,
          0.07980703458025785,
          -0.024798174137079434,
          0.019601707130249786,
          0.048072939018506525,
          0.01875498485484209,
          0.03811712272102034,
          0.07056298005706567,
          -0.04799133300000753
        ],
        [
          -0.047376950531423906,
          -0.05678391462544391,
          -0.05973780258062751,
          0.030949075160421904,
          0.019434205214839337,
          -0.020656071345305935,
          0.02570760418777667,
          0.0444166071806286,
          -0.052568720483605426,
          0.008788288116082222,
          0.021186759524471493,
          -0.06756002168730368,
          0.03393058778187262,
          0.06362079689556605,
          -0.06796332743231881,
          -0.07928232930690168
        ],
        [
          -0.0070192397737582615,
          0.02629894985192759,
          0.0737296360198296,
          -0.011053321412793363,
          0.046145805755473,
          -0.03906786745096164,
          0.024055661591990556,
          0.021459159152362718,
          -0.06250736849785338,
          0.03427420190607491,
          0.03898384384605212,
          -0.003439734064946981,
          -0.07466993819435938,
          0.06544383212773476,
          0.03743065045961289,
          -0.03117465046996416
        ],
        [
          -0.01994915496568286,
          -0.019471549485577333,
          0.000508700080376466,
          -0.027271464819345413,
          0.04954844561354886,
          0.03316005031997416,
          -0.06086726573927098,
          0.07424541688837544,
          0.020960359813791317,
          0.05641216728555508,
          0.04326063372756823,
          -0.0013269241593296573,
          0.03730146612821486,
          0.07966104185190012,
          -0.03469162226561212,
          0.0516534267719996
        ],
        [
          -0.00021997850471322663,
          -0.0014781434509733135,
          -0.010824582931293656,
          0.034576323945446026,
          -0.041443399903475654,
          0.03869587424021148,
          0.054687997256191764,
          -0.06506272872897736,
          0.06053231355237654,
          -0.03801504359888359,
          0.0028627906602585566,
          0.025045229513300547,
          -0.02072814362289937,
          -0.07122780433051172,
          0.05656903812824184,
          -0.04993051925053151
        ],
        [
          -0.012694805621545829,
          0.04572294003811318,
          -0.02546922683404481,
          0.0696900903809553,
          0.04546984844162429,
          -0.015486717332500649,
          -0.0857100214015669,
          0.0752920818805993,
          -0.0646477687154534,
          0.023396812168176996,
          -0.021408027662009558,
          0.011511880836253357,
          0.005747680915205524,
          0.009687487429374395,
          -0.016193953646851503,
          0.0356513459182903
        ],
        [
          -0.04639583131887799,
          -0.044109594644397045,
          0.029992699326585198,
          -0.02928537235426543,
          0.015532581892475767,
          0.0040113201613528335,
          0.001606174791180709,
          -0.00888390847966779,
          0.03887066443551961,
          -0.02945645518734199,
          0.024843652619985328,
          -0.034793846164925285,
          -0.04827158982384005,
          -0.06614177254818862,
          -0.053709198568551456,
          -0.06207580443874516
        ],
        [
          -0.011862269329282556,
          0.04351070315662317,
          -0.05058990847425429,
          -0.052553006070676034,
          -0.014147479649952634,
          0.02130006922798675,
          0.08595411446724144,
          0.0017986383423269532,
          -0.03604432844325079,
          -0.04720814676230564,
          -0.01955344481350774,
          -0.021724671459294412,
          -0.026076826530980125,
          -0.06449132291371155,
          0.018361435932307348,
          -0.029167126529792493
        ],
        [
          0.10938218749492269,
          0.005966620550253358,
          0.03188374483865309,
          -0.050260868449678704,
          0.07030129489778779,
          0.020251837336219748,
          0.04947114782923006,
          0.014975705662436155,
          -0.0032230327123323635,
          -0.023336616531011933,
          -0.07157736572550492,
          -0.09130051615087867,
          0.03945498488885664,
          -0.017757694463505766,
          0.03565258031715305,
          -0.02511326649685981
        ],
        [
          -0.067830294890901,
          0.021650539151681962,
          -0.07207772131025351,
          -0.05597889555445504,
          0.007959263482570322,
          -0.045906144042854424,
          0.07862504319756058,
          -0.058898659660132524,
          0.04194738503469067,
          0.018655774746310052,
          0.05006307270478384,
          -0.040501545403577414,
          -0.0028538462933004175,
          -0.006583173973140931,
          -0.011999210952727138,
          0.056224426270357016
        ]
      ],
      "bias": [
        -0.007079283702231072,
        -0.00029941353354650553,
        9.196047722881133e-05,
        -0.002332309730643278,
        -0.0005849119933973365,
        0.004134695727696618,
        -0.0015245706099804583,
        -0.0008751714527236822,
        0.00021431858793125616,
        -0.004635727652789798,
        0.0011837460897089931,
        0.0021858721779451007,
        0.002125637247770739,
        -0.0014209106785081015,
        0.002697728210068778,
        1.6993743401209567e-05
      ]
    },
    {
      "weights": [
        [
          0.43407993648214993
        ],
        [
          -0.0048214053187837285
        ],
        [
          -0.0059744031850207276
        ],
        [
          0.0647190813616193
        ],
        [
          0.1645960929776057
        ],
        [
          0.2812756967154121
        ],
        [
          -0.08408102890821188
        ],
        [
          0.06128095850739627
        ],
        [
          0.016721982109698094
        ],
        [
          -0.12266353147380937
        ],
        [
          -0.2554265172256118
        ],
        [
          -0.2784174310209767
        ],
        [
          -0.2854663634941225
        ],
        [
          -0.16313409865787853
        ],
        [
          -0.1633079835679876
        ],
        [
          -0.1213010148648656
        ]
      ],
      "bias": [
        0.00940538075588449
      ]
    }
  ],
  "metrics": {
    "trainLoss": 0.782762207959398,
    "validationLoss": 0.9369651472162993,
    "trainCount": 2722,
    "validationCount": 276,
    "bestEpoch": 100
  },
  "trainedAt": "2026-04-16T02:14:42.341449+00:00",
  "datasetMeta": {
    "path": "C:\\Users\\user\\Desktop\\Galaxy-Power-Party-master\\tmp\\ai\\selfplay_dataset_v2.jsonl",
    "sampleCount": 2998
  }
}