{
  "version": 1,
  "modelType": "mlp_tanh_v1",
  "featureOrder": [
    "aiHp",
    "opponentHp",
    "hpLead",
    "lethalPressure",
    "expectedDamageNext",
    "initiativeValue",
    "auroraEconomy",
    "rerollEconomy",
    "statusValue",
    "characterSynergy",
    "roundTempo",
    "variancePressure",
    "selfPoison",
    "oppPoison",
    "selfResilience",
    "oppResilience",
    "selfPower",
    "oppPower",
    "selfThorns",
    "oppThorns",
    "selfForceField",
    "oppForceField",
    "selfCounter",
    "oppCounter",
    "selfHack",
    "oppHack",
    "selfUnyielding",
    "oppUnyielding",
    "selfAscension",
    "oppAscension",
    "isAttackSelect",
    "isDefenseSelect"
  ],
  "normalization": {
    "mean": [
      26.76851851851852,
      26.92425925925926,
      -0.15574074074074074,
      -0.03648148148148148,
      -7.374444444444444,
      0.006666666666666667,
      -0.003703703703703704,
      0.018703703703703705,
      -0.6037037037037037,
      0.33614814814814814,
      0.006666666666666667,
      0.004074074074074074,
      0.0,
      0.0,
      0.055,
      0.058888888888888886,
      0.3775925925925926,
      0.3811111111111111,
      0.0,
      0.0011111111111111111,
      0.0,
      0.0,
      0.048518518518518516,
      0.048518518518518516,
      0.0,
      0.058888888888888886,
      0.0,
      0.0,
      0.021296296296296296,
      0.04388888888888889,
      0.5033333333333333,
      0.49666666666666665
    ],
    "std": [
      7.365141221498745,
      7.233256810105167,
      9.594751864440896,
      0.18748488736534957,
      7.990189277567712,
      0.9999777775308586,
      0.9809222725583804,
      2.4348211176945767,
      7.512334621658174,
      0.6136810429665973,
      0.9999777775308586,
      0.6477754484001911,
      1.0,
      1.0,
      0.4024611782520147,
      0.4161715576923761,
      1.641199239924975,
      1.6473139378626478,
      1.0,
      0.05772433425715794,
      1.0,
      1.0,
      0.2148591908187469,
      0.2148591908187469,
      1.0,
      0.23541662569648938,
      1.0,
      1.0,
      0.14437023259784773,
      0.20484788092872147,
      0.49998888876542935,
      0.49998888876542935
    ]
  },
  "layers": [
    {
      "weights": [
        [
          0.012668101987564025,
          -0.06874315225095144,
          -0.05033848162748832,
          -0.05780769112488759,
          0.04838705914580679,
          0.04191056497106117,
          0.08852908392763889,
          -0.0636848537986929,
          -0.03389796622979647,
          -0.07813159661880166,
          -0.05757549601211833,
          -0.004524810392497033,
          -0.09036463707965257,
          -0.061562319300296375,
          0.004492402666581707,
          0.017869618487495995
        ],
        [
          -0.023920470555882103,
          -0.004095855350143528,
          0.09753418200690314,
          -0.05366673716216927,
          0.02200443263382354,
          0.014246516579701052,
          -0.07922611124854481,
          -0.06382589298572001,
          0.12040378785118624,
          0.0005657665562539592,
          -0.04394052620122519,
          -0.06368192887864116,
          0.09327403855400247,
          0.05290459825837889,
          0.10017846178187474,
          0.014796699494561655
        ],
        [
          -0.0172909588062494,
          0.09512273133180323,
          -0.06664977846302718,
          -0.021120971280838383,
          0.08110379852961666,
          0.0425919891108378,
          0.11812034252846741,
          0.020783116714415795,
          -0.019320233138217964,
          -0.09503007095505227,
          -0.06917310407202133,
          -0.03846486061668227,
          -0.10685078743998787,
          -0.08039350196248934,
          -0.11727633207228803,
          -0.010771387245145153
        ],
        [
          0.034443995538103366,
          -0.0345017495508132,
          0.018195574887369944,
          -0.03207960348820849,
          -0.05435220663060249,
          0.06378041406771968,
          -0.009768840728138595,
          0.010589464934149485,
          -0.020613757975045242,
          0.061076517164410656,
          -0.04045684442324933,
          -0.022807624144105212,
          0.10722227367107129,
          0.049878986592911644,
          0.04707402649292264,
          0.015950235426692903
        ],
        [
          0.06202523306033133,
          0.037605364715233194,
          -0.02512505641668414,
          -0.06834460347308771,
          -0.038475357777449204,
          -0.04157099402169062,
          -0.06738219441417098,
          0.06689167585552679,
          0.07587616856678779,
          -0.013076389160072454,
          0.03216450755085598,
          -0.017553847453749192,
          0.08058654791702716,
          0.006978190404405278,
          -0.01619727382583036,
          -0.04770647333894472
        ],
        [
          0.007777815802899791,
          -0.036157479784266956,
          0.008601733048802577,
          0.059999028358338764,
          -0.013579009933849702,
          -0.044438524638646136,
          0.08212054440114203,
          0.0021290544964830474,
          -0.06991000051270051,
          -0.07120165282344959,
          -0.06455477201743398,
          0.021766461759354715,
          0.04274654841606742,
          -0.016560076593343923,
          -0.07199852338611976,
          -0.017422312516060426
        ],
        [
          0.09764738265277169,
          -0.01326408986844216,
          0.12406066152745747,
          0.07694884186176902,
          -0.1023329605985173,
          0.028184162563648786,
          -0.026647989803131225,
          -0.004920310254730206,
          0.005353146473076204,
          0.06284837870592805,
          -0.04233692015661998,
          -0.018774456498547903,
          0.03388747543297818,
          0.10869064305134153,
          0.11014945656647353,
          -0.05558169599385154
        ],
        [
          -0.008890996287987698,
          -0.04337132085303579,
          0.04292363083948335,
          0.04833158112443248,
          -0.020531114266211868,
          0.026171721494288067,
          0.03790482703126683,
          -0.05150519409603853,
          0.0225934245704182,
          -0.004657360391504377,
          0.03564345260965437,
          0.008164954884735601,
          -0.09744210769932041,
          -0.04537674789191541,
          -0.09615300087093168,
          0.07675456146585324
        ],
        [
          0.10314425763356973,
          0.015638364648411514,
          0.06238753557872547,
          -0.020824267447387905,
          0.008582732001505933,
          0.044146150588334696,
          -0.15598064147380786,
          -0.021278073285380124,
          0.021683596609887206,
          0.09385256646798074,
          0.08487502190794836,
          -0.06428661210937758,
          0.06865941535533696,
          0.09003378605618352,
          0.0623503190631736,
          0.01772282180388697
        ],
        [
          0.031443867116443786,
          -0.0844304413848633,
          0.11512428444552279,
          0.08467523094914371,
          -0.10271726654832135,
          -0.05534398867227538,
          -0.039714552625636536,
          0.0030004207647683144,
          0.0838498160424374,
          0.0776782965170862,
          -0.016545868884662248,
          -0.05357875147319196,
          0.05880543419845366,
          0.09446618365676407,
          0.0673441235607722,
          -0.0857927973763542
        ],
        [
          -0.07068219190175916,
          0.02278033601527922,
          -0.04830133997717922,
          0.061214569062922934,
          0.060058573284286154,
          -0.06819267012162698,
          -0.039404731139036385,
          0.0276412920356536,
          -0.05017761728123741,
          -0.05757037709540314,
          0.06758364561936787,
          0.012741990018905832,
          -0.008358785672119772,
          0.04143343660522718,
          0.047036563272230054,
          -0.04801581205920584
        ],
        [
          -0.0501463125118717,
          -0.02284861229652336,
          0.012643035538260801,
          0.015335709877255821,
          0.01939458898534849,
          0.008586869272123083,
          0.039740518992197486,
          -0.0685089461059404,
          0.017882342700753864,
          -0.018132036201028667,
          0.07483260099138651,
          -0.033117582238964605,
          -0.027169211581151372,
          0.012820623233165627,
          0.019026572235460663,
          -0.05189185227820752
        ],
        [
          -0.04003096833886392,
          0.06772249588416206,
          -0.00909908079144689,
          0.057815856761892895,
          0.008052049991975688,
          -0.071905867276019,
          0.07988519494603626,
          0.053764413612792314,
          0.0750394011655602,
          0.06821871728130043,
          0.055791317506288865,
          -0.05339022230337376,
          -0.0022974199278850416,
          -0.04580043212813093,
          -0.015833553192087582,
          -0.07061833600445137
        ],
        [
          -0.019364300963693425,
          0.07764941500475615,
          -0.03756751069245569,
          0.0454512963117711,
          -0.007198661225737077,
          -0.012318802241573931,
          0.07317082253754771,
          0.07926763031883423,
          0.008922931744898915,
          0.03494532404741216,
          -0.05523250795614974,
          -0.03252674792086973,
          0.0749934983950654,
          0.012668846530600991,
          0.006751232219883885,
          0.039676089660650254
        ],
        [
          -0.07850369028843363,
          0.021401164097255083,
          -0.024703249603527273,
          0.04809565921222121,
          -0.04305949025385966,
          0.07663090286274701,
          -0.04367189415104282,
          -0.045236223285665705,
          -0.00400734692719835,
          0.006860543668364483,
          -0.050088401447654037,
          -0.05663378204257692,
          0.04045471786976238,
          -0.05775518869680767,
          -0.009757242026815728,
          0.02775171302904894
        ],
        [
          -0.01032594456497895,
          0.01074301863544337,
          0.011704018098371185,
          0.07027493655116727,
          -0.0505688373347143,
          0.034401673422237794,
          -0.04650897711435152,
          -0.018156945561721656,
          0.03059289278034635,
          -0.02271368353839468,
          -0.026246093034669703,
          0.03846955566711789,
          -0.06015715783420998,
          -0.0007152398753565313,
          0.08297132213803678,
          0.07710448249348734
        ],
        [
          -0.04395218889917238,
          -0.0666826483644333,
          0.02139365887843832,
          0.09579110293496915,
          0.03345777128448476,
          0.04806001026735768,
          -0.06117566167304239,
          -0.06395019107558243,
          0.09994681151681316,
          0.06074162567670616,
          0.03958088665535417,
          0.0752174635021364,
          0.06311699276609165,
          -0.03334226553030996,
          0.09308635917352368,
          -0.05616794487574603
        ],
        [
          -2.9338864862734064e-06,
          0.09206594706474318,
          -0.11013606654540442,
          -0.09221776232970572,
          -0.030705399912005025,
          0.026849974069227425,
          0.022404948531785193,
          0.02937949914769668,
          -0.024042085097680636,
          -0.07734049190288629,
          -0.005758501802567734,
          -0.0338750262258138,
          -0.04754556153350334,
          0.013060262604504748,
          -0.014430471917273553,
          -0.04103414341533954
        ],
        [
          -0.012227876389803785,
          -0.035731164164439735,
          -0.07943268974595484,
          0.04337907568314034,
          0.02193814036822074,
          -0.03808715801050429,
          0.03859694533566893,
          0.008268867380222603,
          -0.011570092963091305,
          -0.0784528480626656,
          -0.06796098238819727,
          0.06129702292802287,
          0.06462857144958291,
          0.007294446272883573,
          0.05353520318176268,
          0.013201530638367043
        ],
        [
          -0.05631966630903151,
          -0.05959659915458668,
          -0.032250341406695686,
          0.06381123959161829,
          0.047498582939322055,
          0.05772865961259648,
          0.06384557439539536,
          -0.04637966577933344,
          -0.0404290056251216,
          -0.06363391367460129,
          0.04468180600118474,
          0.061464916071186176,
          -0.017701309374186784,
          0.017934438893904742,
          -0.05539740656036927,
          0.06880911461723549
        ],
        [
          0.058336911395194244,
          0.07619296526895407,
          0.04972347519046351,
          0.06102659274613191,
          -0.0760341820962898,
          0.037850315480813135,
          -0.026850325128571412,
          0.0689305417677321,
          0.048357622229942235,
          0.058250244540044696,
          0.04971989065190223,
          -0.03731108646488448,
          0.045979921461675385,
          -0.06270469977552687,
          0.05954668526497435,
          0.05737492021404507
        ],
        [
          -0.04441060519269369,
          0.05065385689550862,
          -0.006351482451369267,
          -0.03116946122582391,
          0.04725527986445789,
          -0.043584722014756744,
          -0.07621369044776775,
          -0.049099233867566615,
          -0.027478087808366955,
          0.058296470724845825,
          0.07470225664773779,
          -0.035340001164500576,
          0.022637078177220438,
          -0.01605145850239026,
          0.07698394995172163,
          0.005794517196595503
        ],
        [
          0.06380321730428952,
          -0.05530710060857845,
          0.054470263942466686,
          -0.059187870366574226,
          0.08200959208468811,
          -0.03532498368684778,
          -0.042223748520793476,
          -0.006787201611552062,
          0.021307272148450924,
          -0.042889230299051354,
          0.010098395154543926,
          0.0045457224199682185,
          -0.03289054942167206,
          -0.0019921392645206415,
          -0.05654685214712884,
          0.0393972643379322
        ],
        [
          -0.07497979126483544,
          0.06399571828767786,
          0.020405095451735297,
          0.03924694900337965,
          0.03192378361082746,
          0.025900022411724517,
          -0.03372951475981384,
          -0.07151996779145757,
          0.03642920484903598,
          -0.013806678845666824,
          -0.025244255414000084,
          0.052601728921506545,
          0.046440759718860365,
          -0.02098043953645119,
          -0.018013322941938307,
          -0.01886642090642743
        ],
        [
          -0.015615938070764057,
          -0.03269516759584848,
          -0.05963395215053549,
          -0.012728586596334676,
          0.07045818731682928,
          0.02837087124363727,
          0.06444888731721322,
          0.018482386552220884,
          -0.03184802006950955,
          0.007669954101711715,
          -0.079935049648434,
          -0.03409380530097165,
          -0.011217896001626468,
          0.012797564991309116,
          0.024752899792491456,
          -0.0056018895604777325
        ],
        [
          -0.034392182663593764,
          -0.02225735912880419,
          -0.06791121718305852,
          0.034366325067734335,
          0.07838372700335895,
          -0.03668196051369646,
          0.0003164148454644198,
          0.014804123471019413,
          -0.03410970021602434,
          -0.06997484084593229,
          0.024502758478958792,
          0.043976796087526304,
          -0.020545493911564926,
          -0.0872672558806203,
          -0.10790195617854992,
          -0.05099784592930078
        ],
        [
          -0.04082519294746398,
          -0.003978184924991177,
          0.05595803113995711,
          -0.06834748333046894,
          -0.013689438240364907,
          0.0207624609180342,
          -0.04889036212164651,
          0.031416680078480794,
          -0.0008996529583300966,
          -0.04096248966744979,
          0.024969281777885446,
          -0.07911282909791492,
          0.04015431625895566,
          0.04320739017184401,
          -0.06294603254983377,
          -0.011976608969162542
        ],
        [
          -0.05185813092695493,
          0.07327456676472636,
          0.0028732400709985256,
          -0.07196505837749745,
          -0.04012827525440454,
          0.05573381557626557,
          -0.006966107924772397,
          0.048226656275562316,
          0.0268124372138165,
          0.07806279249063168,
          0.015272370955107153,
          0.07200633735090496,
          0.06262814812966992,
          0.01802437164188206,
          0.03508383380415474,
          0.000764506371904311
        ],
        [
          0.06631749640799012,
          -0.008631577121786008,
          0.09536968211089647,
          0.057694523134667886,
          -0.027278413379077864,
          -0.048003846719568845,
          -0.07484976310380875,
          0.013268884164366697,
          0.07653591868456117,
          0.03565994923936446,
          0.036841805104865316,
          -0.04031059881125772,
          -0.034809236685576735,
          0.00014722559815857558,
          0.00869132919609705,
          -0.04658531278938364
        ],
        [
          -0.014429478406919508,
          -0.03817590489327013,
          -0.09389406285428105,
          0.0065668656242239155,
          0.06014798331250011,
          -0.05766907617467014,
          0.04218584342256363,
          0.017349407190363195,
          -0.05893430473275172,
          -0.08026171385744928,
          -0.033915070175000346,
          0.06814118718108671,
          -0.027800279524741105,
          -0.011055469842323988,
          -0.0015359679708545518,
          0.06289940943528902
        ],
        [
          -0.02118012103477047,
          -0.0772527637744978,
          -0.028650616959471978,
          0.03690338699144414,
          0.05906858133474344,
          0.0730190080514055,
          -0.01044206741730412,
          0.04020735454473684,
          0.0029256630969066734,
          0.01778014133919152,
          -0.04681244178172852,
          -0.043517443373709934,
          -0.014252393714544974,
          -0.0794617000898189,
          -0.02838222937869171,
          0.03018130324742964
        ],
        [
          -0.013268247274773725,
          -0.055396705859501995,
          -0.0002855507358664576,
          -0.055926919416956704,
          0.017044204512163593,
          -0.07615552159136645,
          -0.01947128634757164,
          0.00969786977571513,
          -0.07120816612504248,
          0.021580216572900816,
          -0.05618944916957018,
          -0.0075033440386184334,
          -0.06796830875981273,
          -0.015237710448604318,
          -0.04397139815573008,
          -0.029223272861884322
        ]
      ],
      "bias": [
        -0.0001809336498182389,
        -2.7770520226816073e-05,
        0.0026738019725934354,
        -6.243500372793797e-05,
        -0.0004410264615031727,
        3.969249233518984e-05,
        0.0008881661877516279,
        0.00047648208117616846,
        -0.0020476775953995703,
        0.0024551868029561797,
        0.001339395388658817,
        -7.872421090751151e-05,
        -0.0007579208309678855,
        0.0010148484708246803,
        -0.003038815143217365,
        -0.001063178287287726
      ]
    },
    {
      "weights": [
        [
          0.10832567098993201
        ],
        [
          -0.08037619681306776
        ],
        [
          0.26302396270727507
        ],
        [
          0.09286632978216544
        ],
        [
          -0.12827135983631247
        ],
        [
          -0.008896941469370187
        ],
        [
          -0.22351160378572227
        ],
        [
          -0.04782656227201047
        ],
        [
          0.18105484915584505
        ],
        [
          0.21218302928507268
        ],
        [
          0.06645833297667296
        ],
        [
          -0.058219839767548694
        ],
        [
          0.19157078185440446
        ],
        [
          0.18746932380820372
        ],
        [
          0.2384278197968003
        ],
        [
          -0.08350993088780996
        ]
      ],
      "bias": [
        -0.0009062969391057468
      ]
    }
  ],
  "metrics": {
    "trainLoss": 1.069404909783685,
    "validationLoss": 1.1633668171297664,
    "trainCount": 5400,
    "validationCount": 600,
    "bestEpoch": 100
  },
  "trainedAt": "2026-04-16T01:47:24.258337+00:00",
  "datasetMeta": {
    "path": "C:\\Users\\user\\Desktop\\Galaxy-Power-Party-master\\tmp\\ai\\selfplay_dataset.jsonl",
    "sampleCount": 6000
  }
}