{
  "version": 1,
  "modelType": "mlp_tanh_v1",
  "featureOrder": [
    "aiHp",
    "opponentHp",
    "hpLead",
    "lethalPressure",
    "expectedDamageNext",
    "initiativeValue",
    "auroraEconomy",
    "rerollEconomy",
    "statusValue",
    "characterSynergy",
    "roundTempo",
    "variancePressure",
    "selfPoison",
    "oppPoison",
    "selfResilience",
    "oppResilience",
    "selfPower",
    "oppPower",
    "selfThorns",
    "oppThorns",
    "selfForceField",
    "oppForceField",
    "selfCounter",
    "oppCounter",
    "selfHack",
    "oppHack",
    "selfUnyielding",
    "oppUnyielding",
    "selfAscension",
    "oppAscension",
    "isAttackSelect",
    "isDefenseSelect"
  ],
  "normalization": {
    "mean": [
      26.76851851851852,
      26.92425925925926,
      -0.15574074074074074,
      -0.03648148148148148,
      -7.374444444444444,
      0.006666666666666667,
      -0.003703703703703704,
      0.018703703703703705,
      -0.6037037037037037,
      0.33614814814814814,
      0.006666666666666667,
      0.004074074074074074,
      0.0,
      0.0,
      0.055,
      0.058888888888888886,
      0.3775925925925926,
      0.3811111111111111,
      0.0,
      0.0011111111111111111,
      0.0,
      0.0,
      0.048518518518518516,
      0.048518518518518516,
      0.0,
      0.058888888888888886,
      0.0,
      0.0,
      0.021296296296296296,
      0.04388888888888889,
      0.5033333333333333,
      0.49666666666666665
    ],
    "std": [
      7.365141221498745,
      7.233256810105167,
      9.594751864440896,
      0.18748488736534957,
      7.990189277567712,
      0.9999777775308586,
      0.9809222725583804,
      2.4348211176945767,
      7.512334621658174,
      0.6136810429665973,
      0.9999777775308586,
      0.6477754484001911,
      1.0,
      1.0,
      0.4024611782520147,
      0.4161715576923761,
      1.641199239924975,
      1.6473139378626478,
      1.0,
      0.05772433425715794,
      1.0,
      1.0,
      0.2148591908187469,
      0.2148591908187469,
      1.0,
      0.23541662569648938,
      1.0,
      1.0,
      0.14437023259784773,
      0.20484788092872147,
      0.49998888876542935,
      0.49998888876542935
    ]
  },
  "layers": [
    {
      "weights": [
        [
          0.010062148790443565,
          -0.06635206515495543,
          -0.05849677178942219,
          -0.06011767986324822,
          0.05191550064374649,
          0.04216744749509665,
          0.09428302457094768,
          -0.062289928573574196,
          -0.03926547071285902,
          -0.08430314175235532,
          -0.05897631692638253,
          -0.0029288719884520338,
          -0.09523535466714576,
          -0.06698891560765302,
          -0.002904365813031844,
          0.020206266880556302
        ],
        [
          -0.024619564416375084,
          -0.0034870499252198017,
          0.09595529103788845,
          -0.054283904760190044,
          0.022960555599637708,
          0.014310017579701045,
          -0.0782014603079861,
          -0.0634108116557231,
          0.11905670285746105,
          -0.00029465937017086896,
          -0.04417566828851402,
          -0.06328185024702858,
          0.091675263004172,
          0.05196442008783758,
          0.09864964405889844,
          0.015386486958410685
        ],
        [
          -0.018764315083287273,
          0.09649921801281909,
          -0.07172197167887574,
          -0.02242890104536382,
          0.08309150881538555,
          0.04274130584631976,
          0.12176473297423863,
          0.021540971792089154,
          -0.02242491132489729,
          -0.09911882909344305,
          -0.07007113675458536,
          -0.03754139324982384,
          -0.10938437758298851,
          -0.08385029776810952,
          -0.12180171363946277,
          -0.00942235171057886
        ],
        [
          0.032307921225230386,
          -0.03243690838858797,
          0.01151125800111563,
          -0.03407898563391857,
          -0.05163500439720171,
          0.06401638422531844,
          -0.0051357098074393415,
          0.011761964470546407,
          -0.025392394166045083,
          0.056408375896933316,
          -0.042012740958820696,
          -0.02156023650655579,
          0.10181294331326456,
          0.045419043223668965,
          0.040994501471182665,
          0.018037669607241947
        ],
        [
          0.060747099879365954,
          0.03876737611435139,
          -0.028184984975503823,
          -0.06914531189349699,
          -0.03704519732013221,
          -0.0414301420239209,
          -0.0640999746021053,
          0.06765959530073652,
          0.07350412552848683,
          -0.016335153871398514,
          0.031114967345618503,
          -0.016937959211932602,
          0.07742654133841347,
          0.004653440076308159,
          -0.019649108612952673,
          -0.04656649494782929
        ],
        [
          0.008341190096626391,
          -0.036509923231520885,
          0.009837031456761226,
          0.06080970461829628,
          -0.014273591231604042,
          -0.044489501494299,
          0.08159248979038064,
          0.0019994844106149766,
          -0.06904166989693054,
          -0.07107704788417417,
          -0.06429306101934379,
          0.02139704238107493,
          0.043083239931097035,
          -0.015641208883574294,
          -0.07142443697413595,
          -0.017738825230937765
        ],
        [
          0.09318942295327665,
          -0.00936201750794682,
          0.11305182691050508,
          0.07296850321653245,
          -0.09689630836276841,
          0.028697299110310038,
          -0.01540613842936953,
          -0.002485738422268947,
          -0.003547772807128131,
          0.0529257220237147,
          -0.04572813396960717,
          -0.01600376067192327,
          0.025013402126198934,
          0.10060845875300856,
          0.09941319496638572,
          -0.051732032808105344
        ],
        [
          -0.00664808523591405,
          -0.04507566447508883,
          0.04835309692318944,
          0.050565946652922404,
          -0.023332726224169077,
          0.025953672270139772,
          0.0337898286152052,
          -0.05244983434881575,
          0.026456684819723242,
          -0.001282738292207304,
          0.03706507730774648,
          0.006854348545920559,
          -0.09401136898501596,
          -0.04148371764891232,
          -0.09197062608858085,
          0.07510287279437768
        ],
        [
          0.09913810142034152,
          0.018731493102469875,
          0.05566164181865172,
          -0.024371290299766694,
          0.013617052717150743,
          0.044554744740446336,
          -0.15147478499800052,
          -0.01930371837596053,
          0.01565599612128993,
          0.08874100822807217,
          0.08237511277405252,
          -0.062014134079171584,
          0.06345326016295982,
          0.08262296134463602,
          0.05493797393733647,
          0.021017752888905533
        ],
        [
          0.023754010457334235,
          -0.07848664788508816,
          0.09674570485491286,
          0.0781659055048618,
          -0.09384909617288402,
          -0.054587539603013865,
          -0.022878134554137994,
          0.0066523361201663665,
          0.07077042873511553,
          0.06257311904411703,
          -0.021753720006426773,
          -0.049370805459577304,
          0.04508709435277714,
          0.08125844614570993,
          0.050743686721006376,
          -0.08005238315672596
        ],
        [
          -0.07011881760803254,
          0.0224278925680253,
          -0.047066041569220576,
          0.06202524532288045,
          0.059363991986531826,
          -0.06824364697727979,
          -0.03993278574979774,
          0.027511721949785524,
          -0.0493092866654674,
          -0.05744577215612769,
          0.06784535661745807,
          0.012372570640626041,
          -0.008022094157090157,
          0.042352304314996765,
          0.047610649684213864,
          -0.04833232477408317
        ],
        [
          -0.0465608430978797,
          -0.025858666393929756,
          0.02290821984147681,
          0.01828181609820805,
          0.014885875126521831,
          0.00822828284751299,
          0.031450471855167826,
          -0.07024396282272734,
          0.0247244634028663,
          -0.009997137837620632,
          0.077238291873338,
          -0.035218271655806495,
          -0.02058996645883375,
          0.020033978943763672,
          0.028193473735964886,
          -0.054905881723898375
        ],
        [
          -0.04003096833886392,
          0.06772249588416206,
          -0.00909908079144689,
          0.057815856761892895,
          0.008052049991975688,
          -0.071905867276019,
          0.07988519494603626,
          0.053764413612792314,
          0.0750394011655602,
          0.06821871728130043,
          0.055791317506288865,
          -0.05339022230337376,
          -0.0022974199278850416,
          -0.04580043212813093,
          -0.015833553192087582,
          -0.07061833600445137
        ],
        [
          -0.019364300963693425,
          0.07764941500475615,
          -0.03756751069245569,
          0.0454512963117711,
          -0.007198661225737077,
          -0.012318802241573931,
          0.07317082253754771,
          0.07926763031883423,
          0.008922931744898915,
          0.03494532404741216,
          -0.05523250795614974,
          -0.03252674792086973,
          0.0749934983950654,
          0.012668846530600991,
          0.006751232219883885,
          0.039676089660650254
        ],
        [
          -0.07606508121751518,
          0.0192035279333229,
          -0.0174869957621182,
          0.05053680972595144,
          -0.04658510057793637,
          0.07635469684615638,
          -0.05001309663379309,
          -0.04667194450222719,
          0.0011396013098491258,
          0.013258828585097948,
          -0.048281741492362154,
          -0.058245179986076374,
          0.04650626985207304,
          -0.05287150029129429,
          -0.0027324162573497952,
          0.025273740709334486
        ],
        [
          -0.011618970184310686,
          0.011817272025819664,
          0.008392061216585018,
          0.06981018720948955,
          -0.0492639655948819,
          0.03453745643553543,
          -0.04428164981977212,
          -0.017575229238771334,
          0.029000127415313173,
          -0.026097153857982267,
          -0.027289292725381616,
          0.03919295387596515,
          -0.06313892737903974,
          -0.003261950084614696,
          0.08139584234737676,
          0.07813907775558021
        ],
        [
          -0.04667609358517686,
          -0.06484939255920356,
          0.015611564517225271,
          0.09381096087543692,
          0.036486662782256124,
          0.04827571271800968,
          -0.05902350892410207,
          -0.06297837395591281,
          0.09702241400214322,
          0.05729484588749357,
          0.03815154656155022,
          0.07657615245852238,
          0.06002457292344989,
          -0.03802650558865556,
          0.09090026721777093,
          -0.054171608002371904
        ],
        [
          0.0027177776103145777,
          0.09014671781876138,
          -0.10603018676622566,
          -0.08980031390363007,
          -0.03436096209060537,
          0.02653875427322215,
          0.018623268365805006,
          0.027901272305863898,
          -0.018814971336265772,
          -0.07403864916810826,
          -0.003906506921419657,
          -0.03560272047353017,
          -0.043764574758462516,
          0.018266448212207888,
          -0.007853036679715842,
          -0.04333122798489285
        ],
        [
          -0.012227876389803785,
          -0.035731164164439735,
          -0.07943268974595484,
          0.04337907568314034,
          0.02193814036822074,
          -0.03808715801050429,
          0.03859694533566893,
          0.008268867380222603,
          -0.011570092963091305,
          -0.0784528480626656,
          -0.06796098238819727,
          0.06129702292802287,
          0.06462857144958291,
          0.007294446272883573,
          0.05353520318176268,
          0.013201530638367043
        ],
        [
          -0.05631870187790594,
          -0.05959607857023807,
          -0.032136565523344915,
          0.06381397532878062,
          0.047489380147455844,
          0.05772847944629354,
          0.06384348755438995,
          -0.046379046442575365,
          -0.04041656921791719,
          -0.06361652283830159,
          0.04469241946181586,
          0.06146368671923812,
          -0.01751703125121332,
          0.01805903095520076,
          -0.055400889321991977,
          0.068808339090513
        ],
        [
          0.058336911395194244,
          0.07619296526895407,
          0.04972347519046351,
          0.06102659274613191,
          -0.0760341820962898,
          0.037850315480813135,
          -0.026850325128571412,
          0.0689305417677321,
          0.048357622229942235,
          0.058250244540044696,
          0.04971989065190223,
          -0.03731108646488448,
          0.045979921461675385,
          -0.06270469977552687,
          0.05954668526497435,
          0.05737492021404507
        ],
        [
          -0.04441060519269369,
          0.05065385689550862,
          -0.006351482451369267,
          -0.03116946122582391,
          0.04725527986445789,
          -0.043584722014756744,
          -0.07621369044776775,
          -0.049099233867566615,
          -0.027478087808366955,
          0.058296470724845825,
          0.07470225664773779,
          -0.035340001164500576,
          0.022637078177220438,
          -0.01605145850239026,
          0.07698394995172163,
          0.005794517196595503
        ],
        [
          0.06568880711909322,
          -0.056904277905311294,
          0.05983795357849228,
          -0.057271879187669184,
          0.07978507712643049,
          -0.03550484523331923,
          -0.04698675629105971,
          -0.007771588436736953,
          0.02499427094680802,
          -0.038778831022851026,
          0.01153270480015452,
          0.00345067619052441,
          -0.02918485896659994,
          0.0018149592375406212,
          -0.05201328717513912,
          0.03788919206825115
        ],
        [
          -0.07712254419775362,
          0.06562815051858349,
          0.014385894478830532,
          0.0375389711418011,
          0.03458718896640285,
          0.02614783916368246,
          -0.028713091238996392,
          -0.07047351843299307,
          0.03239359158277821,
          -0.018841650536113363,
          -0.026785262889881548,
          0.05397021717639321,
          0.04207006578034397,
          -0.025291985281385827,
          -0.022839924837302624,
          -0.017162229726450824
        ],
        [
          -0.015615938070764057,
          -0.03269516759584848,
          -0.05963395215053549,
          -0.012728586596334676,
          0.07045818731682928,
          0.02837087124363727,
          0.06444888731721322,
          0.018482386552220884,
          -0.03184802006950955,
          0.007669954101711715,
          -0.079935049648434,
          -0.03409380530097165,
          -0.011217896001626468,
          0.012797564991309116,
          0.024752899792491456,
          -0.0056018895604777325
        ],
        [
          -0.03131306796304248,
          -0.024952474493017254,
          -0.06015992913589547,
          0.037237509413837556,
          0.07500554725234797,
          -0.03702132203737716,
          -0.006242257605219594,
          0.013115238609701135,
          -0.02872857769542086,
          -0.06327637049337503,
          0.026720435367893956,
          0.04222119988557207,
          -0.014974320067000306,
          -0.0823724240225975,
          -0.10163902825865805,
          -0.053738423242447785
        ],
        [
          -0.04082519294746398,
          -0.003978184924991177,
          0.05595803113995711,
          -0.06834748333046894,
          -0.013689438240364907,
          0.0207624609180342,
          -0.04889036212164651,
          0.031416680078480794,
          -0.0008996529583300966,
          -0.04096248966744979,
          0.024969281777885446,
          -0.07911282909791492,
          0.04015431625895566,
          0.04320739017184401,
          -0.06294603254983377,
          -0.011976608969162542
        ],
        [
          -0.05185813092695493,
          0.07327456676472636,
          0.0028732400709985256,
          -0.07196505837749745,
          -0.04012827525440454,
          0.05573381557626557,
          -0.006966107924772397,
          0.048226656275562316,
          0.0268124372138165,
          0.07806279249063168,
          0.015272370955107153,
          0.07200633735090496,
          0.06262814812966992,
          0.01802437164188206,
          0.03508383380415474,
          0.000764506371904311
        ],
        [
          0.06399082377508555,
          -0.005833825562831911,
          0.09056706230665558,
          0.05498761424348584,
          -0.023214641476257104,
          -0.047672100066897496,
          -0.07040459103395497,
          0.014917695905077476,
          0.07194254380724777,
          0.02877615494320196,
          0.03475226922118126,
          -0.03854985386579622,
          -0.040811139884134456,
          -0.006048278510335622,
          0.0010616468647367148,
          -0.043750008100691795
        ],
        [
          -0.01185095473754036,
          -0.04063521813870245,
          -0.08832928021716721,
          0.009098395911694106,
          0.05702934305692751,
          -0.05794512435848314,
          0.036363585032241706,
          0.015858639370199046,
          -0.05455273956365878,
          -0.07564891677578425,
          -0.03207991662350867,
          0.06675160621336278,
          -0.022877283146813282,
          -0.005905257620191589,
          0.0058205547992411,
          0.06093131833539596
        ],
        [
          -0.020616746741043863,
          -0.07760520722175168,
          -0.02741531855151331,
          0.03771406325140166,
          0.058374000036989115,
          0.07296803119575268,
          -0.010970122028065483,
          0.04007778445886877,
          0.0037939937126766784,
          0.01790474627846693,
          -0.04655073078363829,
          -0.043886862751989726,
          -0.013915702199515368,
          -0.07854283238004928,
          -0.027808142966707878,
          0.0298647905325523
        ],
        [
          -0.013831621568500324,
          -0.055044262412248066,
          -0.0015208491438251138,
          -0.05673759567691422,
          0.017738785809917935,
          -0.07610454473571364,
          -0.018943231736810277,
          0.009827439861583203,
          -0.07207649674081244,
          0.021455611633625415,
          -0.05645116016766041,
          -0.007133924660338649,
          -0.06830500027484235,
          -0.01615657815837395,
          -0.044545484567713886,
          -0.028906760147006987
        ]
      ],
      "bias": [
        -0.0001597354583839471,
        -9.857082971646807e-05,
        0.0021497300190702097,
        -0.00011626504263895905,
        -0.00032390305063153147,
        3.8668174954230326e-05,
        0.0008729007342925398,
        0.0003726902100524043,
        -0.0013628954909441493,
        0.0017082830043707335,
        0.0010533973499412229,
        -5.7485056622820334e-05,
        -0.0005992023101281702,
        0.0006574139177630062,
        -0.0022111160401696423,
        -0.0010456842066302984
      ]
    },
    {
      "weights": [
        [
          0.09176426974486711
        ],
        [
          -0.07511405515315091
        ],
        [
          0.23980600800919818
        ],
        [
          0.08435493502803616
        ],
        [
          -0.11370769836059005
        ],
        [
          -0.011142567127545027
        ],
        [
          -0.21124748846225164
        ],
        [
          -0.04675581925269591
        ],
        [
          0.1666807421108555
        ],
        [
          0.19349291550788894
        ],
        [
          0.07101876553288188
        ],
        [
          -0.0514975931783127
        ],
        [
          0.17818820565913707
        ],
        [
          0.17042836367060207
        ],
        [
          0.21831220573601212
        ],
        [
          -0.07332600547968013
        ]
      ],
      "bias": [
        -0.0005642754265389693
      ]
    }
  ],
  "metrics": {
    "trainLoss": 1.0851375520629138,
    "validationLoss": 1.1662617140519371,
    "trainCount": 5400,
    "validationCount": 600
  },
  "trainedAt": "2026-04-16T01:41:35.121237+00:00",
  "datasetMeta": {
    "path": "C:\\Users\\user\\Desktop\\Galaxy-Power-Party-master\\tmp\\ai\\selfplay_dataset.jsonl",
    "sampleCount": 6000
  }
}