{
  "version": 1,
  "modelType": "mlp_tanh_v1",
  "featureOrder": [
    "aiHp",
    "opponentHp",
    "hpLead",
    "lethalPressure",
    "expectedDamageNext",
    "initiativeValue",
    "auroraEconomy",
    "rerollEconomy",
    "statusValue",
    "characterSynergy",
    "roundTempo",
    "variancePressure",
    "selfPoison",
    "oppPoison",
    "selfResilience",
    "oppResilience",
    "selfPower",
    "oppPower",
    "selfThorns",
    "oppThorns",
    "selfForceField",
    "oppForceField",
    "selfCounter",
    "oppCounter",
    "selfHack",
    "oppHack",
    "selfUnyielding",
    "oppUnyielding",
    "selfAscension",
    "oppAscension",
    "isAttackSelect",
    "isDefenseSelect"
  ],
  "normalization": {
    "mean": [
      26.76851851851852,
      26.92425925925926,
      -0.15574074074074074,
      -0.03648148148148148,
      -7.374444444444444,
      0.006666666666666667,
      -0.003703703703703704,
      0.018703703703703705,
      -0.6037037037037037,
      0.33614814814814814,
      0.006666666666666667,
      0.004074074074074074,
      0.0,
      0.0,
      0.055,
      0.058888888888888886,
      0.3775925925925926,
      0.3811111111111111,
      0.0,
      0.0011111111111111111,
      0.0,
      0.0,
      0.048518518518518516,
      0.048518518518518516,
      0.0,
      0.058888888888888886,
      0.0,
      0.0,
      0.021296296296296296,
      0.04388888888888889,
      0.5033333333333333,
      0.49666666666666665
    ],
    "std": [
      7.365141221498745,
      7.233256810105167,
      9.594751864440896,
      0.18748488736534957,
      7.990189277567712,
      0.9999777775308586,
      0.9809222725583804,
      2.4348211176945767,
      7.512334621658174,
      0.6136810429665973,
      0.9999777775308586,
      0.6477754484001911,
      1.0,
      1.0,
      0.4024611782520147,
      0.4161715576923761,
      1.641199239924975,
      1.6473139378626478,
      1.0,
      0.05772433425715794,
      1.0,
      1.0,
      0.2148591908187469,
      0.2148591908187469,
      1.0,
      0.23541662569648938,
      1.0,
      1.0,
      0.14437023259784773,
      0.20484788092872147,
      0.49998888876542935,
      0.49998888876542935
    ]
  },
  "layers": [
    {
      "weights": [
        [
          0.011157778802560279,
          -0.0670048805743994,
          -0.058958349046311254,
          -0.05878040860872754,
          0.05117602326865848,
          0.041443820854695126,
          0.0920432205450331,
          -0.06288099468986169,
          -0.038111464531034124,
          -0.08434816259164409,
          -0.056755128869379834,
          -0.0032065301469916914,
          -0.09343387931780194,
          -0.06636654100202982,
          -0.0028914859942189876,
          0.019524289955030513
        ],
        [
          -0.03107997009668406,
          0.0028484755490948777,
          0.07901108853805845,
          -0.06119110599308442,
          0.03170616473045763,
          0.016235846263429377,
          -0.06222399564418859,
          -0.05925281124127193,
          0.10552982018993676,
          -0.01350795676975909,
          -0.05074053999078607,
          -0.05983705478379192,
          0.07783139365815675,
          0.03970006119669053,
          0.08308491672583317,
          0.021268851045289597
        ],
        [
          -0.013052938288648055,
          0.09122189961481911,
          -0.0593024544130147,
          -0.016195206537925808,
          0.075930761661905,
          0.040733997464406535,
          0.10800037721883675,
          0.017952638219905063,
          -0.011341473610566864,
          -0.0891921952517461,
          -0.06341700253941379,
          -0.04035147965682576,
          -0.09756495961549261,
          -0.07412673892550792,
          -0.11005794649928417,
          -0.0143804274512909
        ],
        [
          0.026266991974352442,
          -0.025848781184525316,
          -0.008867254161668918,
          -0.040628026831107916,
          -0.04322973783953878,
          0.06554169124380216,
          0.011050957328801597,
          0.015816290697590656,
          -0.040488144388631166,
          0.04185272343558798,
          -0.04863352325533337,
          -0.018107833127987052,
          0.08671206617931845,
          0.031293150377357346,
          0.02230725148661512,
          0.024127376230854706
        ],
        [
          0.05828157717776599,
          0.04139609329190012,
          -0.03546389937675912,
          -0.07091335162494743,
          -0.03390821211501418,
          -0.04074153641448501,
          -0.056041470976604106,
          0.06962291498616843,
          0.06827022284048942,
          -0.024896555627347716,
          0.028294874590995167,
          -0.015781412273135325,
          0.07153564140480083,
          -0.0006500884680390414,
          -0.028133914672881895,
          -0.04417578033648449
        ],
        [
          0.009846235667096536,
          -0.03782975360058469,
          0.013717028243818472,
          0.06323468929327225,
          -0.016330258793408596,
          -0.04485189814947255,
          0.07917869293879694,
          0.0014342454509058348,
          -0.06557258386441298,
          -0.07111487133248254,
          -0.06280842678154235,
          0.020372948313747093,
          0.046065444647530936,
          -0.012570309938429102,
          -0.06910024419289632,
          -0.0188887051976936
        ],
        [
          0.08324830414659885,
          0.0010176650933527405,
          0.08410621796102916,
          0.0625545901958597,
          -0.08329121015768771,
          0.03138529823963518,
          0.015641849513450018,
          0.004223158598344013,
          -0.02722763175255505,
          0.02799903899595967,
          -0.057043445293872154,
          -0.009847000086810111,
          0.0008702674421246319,
          0.07959927626864616,
          0.07112045080824564,
          -0.042314191602769266
        ],
        [
          -0.002213406861147877,
          -0.04926764946278682,
          0.06078475360916724,
          0.05593931534922084,
          -0.02944129682820665,
          0.02484536289131207,
          0.02353561861449055,
          -0.054843183674848014,
          0.03625379532451445,
          0.0052028034042224825,
          0.04162704456607112,
          0.004177268839719511,
          -0.08459898265260399,
          -0.03239480767813098,
          -0.08213139543277095,
          0.07134436214323864
        ],
        [
          0.08241676967565982,
          0.03472025228812179,
          0.015371220190638144,
          -0.04206955041367669,
          0.035879108137747445,
          0.049086167506619136,
          -0.11939984100003465,
          -0.009012315180645625,
          -0.01825440400006952,
          0.06015872228073123,
          0.0655482546471353,
          -0.05269225519564786,
          0.03168762813550126,
          0.04621215270678077,
          0.015005413389337996,
          0.036094640790642854
        ],
        [
          0.005085808894149071,
          -0.06080076378147011,
          0.04525133896743572,
          0.059102072714177216,
          -0.06978413581933543,
          -0.0496704156506854,
          0.02925683971062842,
          0.01816751193921491,
          0.03153563850575819,
          0.020852177045155774,
          -0.04142167020485762,
          -0.0390602926409663,
          0.004391261238828041,
          0.044340892999175846,
          0.001925183540799911,
          -0.0640411515520077
        ],
        [
          -0.06861377203756236,
          0.02110806219896149,
          -0.04318604478216332,
          0.0644502299978564,
          0.057307324424727274,
          -0.06860604363245333,
          -0.04234658260138149,
          0.02694648299007639,
          -0.045840200632949836,
          -0.057483595604436076,
          0.06932999085525951,
          0.011348476573298209,
          -0.005039889440656273,
          0.045423203260141966,
          0.04993484246545348,
          -0.049482204740839024
        ],
        [
          -0.04864254256981607,
          -0.024019398046997924,
          0.02092201867249032,
          0.015502659585045927,
          0.017204802117583063,
          0.009310729447048843,
          0.0354865508234817,
          -0.06884353308000155,
          0.021399643639319264,
          -0.012125189339538238,
          0.07445906100851692,
          -0.034476470398485955,
          -0.02426436108426592,
          0.017856923523187317,
          0.026000375409085272,
          -0.05318804154877015
        ],
        [
          -0.04003096833886392,
          0.06772249588416206,
          -0.00909908079144689,
          0.057815856761892895,
          0.008052049991975688,
          -0.071905867276019,
          0.07988519494603626,
          0.053764413612792314,
          0.0750394011655602,
          0.06821871728130043,
          0.055791317506288865,
          -0.05339022230337376,
          -0.0022974199278850416,
          -0.04580043212813093,
          -0.015833553192087582,
          -0.07061833600445137
        ],
        [
          -0.019364300963693425,
          0.07764941500475615,
          -0.03756751069245569,
          0.0454512963117711,
          -0.007198661225737077,
          -0.012318802241573931,
          0.07317082253754771,
          0.07926763031883423,
          0.008922931744898915,
          0.03494532404741216,
          -0.05523250795614974,
          -0.03252674792086973,
          0.0749934983950654,
          0.012668846530600991,
          0.006751232219883885,
          0.039676089660650254
        ],
        [
          -0.07204967672547755,
          0.014695402421396582,
          -0.0033015946932116553,
          0.05518531295503787,
          -0.05307433357169345,
          0.0752342408991355,
          -0.06282007373939202,
          -0.04962193102759961,
          0.011662210536962285,
          0.025487764504035587,
          -0.04375647877033433,
          -0.060997229490641375,
          0.05878843097283976,
          -0.04327747717149403,
          0.011138655222803964,
          0.020758924677754895
        ],
        [
          -0.013215832823589692,
          0.013434018633746922,
          0.003551414771872506,
          0.06928528046679834,
          -0.047439484983845356,
          0.03490882930880084,
          -0.0409593836376347,
          -0.016683176442681014,
          0.02678414029296075,
          -0.03129757833539883,
          -0.029231053306135894,
          0.04012593278359937,
          -0.06774887456796826,
          -0.006847484818817325,
          0.07931323943445176,
          0.0795725378021521
        ],
        [
          -0.05637569657261032,
          -0.055999296977666195,
          -0.011124295376266066,
          0.08448472432540596,
          0.04844340615482566,
          0.050452446485120886,
          -0.04555533057451508,
          -0.05807914294204715,
          0.08082228507043103,
          0.04220839648964633,
          0.029682295820598878,
          0.08160638621676701,
          0.04364638837177627,
          -0.058404149223598566,
          0.07616348567767703,
          -0.045681377869507614
        ],
        [
          0.013122998552567785,
          0.08077649632967525,
          -0.08446216208002483,
          -0.07874203089491362,
          -0.04869832980170647,
          0.023419272391291598,
          -0.0029100440674190344,
          0.0210194099850663,
          0.005269093844915045,
          -0.057677752093809626,
          0.007262057788990571,
          -0.04193224392956276,
          -0.023377414657818184,
          0.041658758393211724,
          0.022147791179518185,
          -0.05260763526134336
        ],
        [
          -0.012227876389803785,
          -0.035731164164439735,
          -0.07943268974595484,
          0.04337907568314034,
          0.02193814036822074,
          -0.03808715801050429,
          0.03859694533566893,
          0.008268867380222603,
          -0.011570092963091305,
          -0.0784528480626656,
          -0.06796098238819727,
          0.06129702292802287,
          0.06462857144958291,
          0.007294446272883573,
          0.05353520318176268,
          0.013201530638367043
        ],
        [
          -0.056310917741777475,
          -0.059600662609477856,
          -0.03133474615452874,
          0.06382352480799604,
          0.04743496826684426,
          0.05772547151463521,
          0.06382853500367296,
          -0.04638358365505142,
          -0.04026949250031204,
          -0.063569888281749,
          0.04474717487361987,
          0.06145723276758906,
          -0.016210987667854292,
          0.018650375293936303,
          -0.055349310282418074,
          0.0688003308465511
        ],
        [
          0.058336911395194244,
          0.07619296526895407,
          0.04972347519046351,
          0.06102659274613191,
          -0.0760341820962898,
          0.037850315480813135,
          -0.026850325128571412,
          0.0689305417677321,
          0.048357622229942235,
          0.058250244540044696,
          0.04971989065190223,
          -0.03731108646488448,
          0.045979921461675385,
          -0.06270469977552687,
          0.05954668526497435,
          0.05737492021404507
        ],
        [
          -0.04441060519269369,
          0.05065385689550862,
          -0.006351482451369267,
          -0.03116946122582391,
          0.04725527986445789,
          -0.043584722014756744,
          -0.07621369044776775,
          -0.049099233867566615,
          -0.027478087808366955,
          0.058296470724845825,
          0.07470225664773779,
          -0.035340001164500576,
          0.022637078177220438,
          -0.01605145850239026,
          0.07698394995172163,
          0.005794517196595503
        ],
        [
          0.06894819691354502,
          -0.06021443543378781,
          0.07103229345831873,
          -0.05351070621411592,
          0.07574269876796588,
          -0.03625773379998716,
          -0.05745204016076591,
          -0.009903448687166411,
          0.0327388035678157,
          -0.0312834466766072,
          0.015203092323707748,
          0.0015847780507845769,
          -0.02129869280683313,
          0.009347150385436957,
          -0.043067807495076854,
          0.035023164928080455
        ],
        [
          -0.07960560116929179,
          0.06790879174717297,
          0.006524928656773445,
          0.03522627979209802,
          0.03827921805977515,
          0.026842274712638083,
          -0.02181283425662176,
          -0.06895531395450177,
          0.026807514905678544,
          -0.026164428043670616,
          -0.029427490006018575,
          0.05574759506692188,
          0.03582518588809661,
          -0.03129205329325827,
          -0.02989472134160426,
          -0.014921969709075302
        ],
        [
          -0.015615938070764057,
          -0.03269516759584848,
          -0.05963395215053549,
          -0.012728586596334676,
          0.07045818731682928,
          0.02837087124363727,
          0.06444888731721322,
          0.018482386552220884,
          -0.03184802006950955,
          0.007669954101711715,
          -0.079935049648434,
          -0.03409380530097165,
          -0.011217896001626468,
          0.012797564991309116,
          0.024752899792491456,
          -0.0056018895604777325
        ],
        [
          -0.021177626728099856,
          -0.035416081309045146,
          -0.03119195318569517,
          0.0483273960211024,
          0.062214648313350655,
          -0.039857485800159395,
          -0.03374129207164192,
          0.006412412611525796,
          -0.0074619856441667486,
          -0.03892954253790221,
          0.037790931327747426,
          0.03663317465551124,
          0.007159224284040579,
          -0.06367362553625877,
          -0.07775125288000681,
          -0.06313923400287881
        ],
        [
          -0.04082519294746398,
          -0.003978184924991177,
          0.05595803113995711,
          -0.06834748333046894,
          -0.013689438240364907,
          0.0207624609180342,
          -0.04889036212164651,
          0.031416680078480794,
          -0.0008996529583300966,
          -0.04096248966744979,
          0.024969281777885446,
          -0.07911282909791492,
          0.04015431625895566,
          0.04320739017184401,
          -0.06294603254983377,
          -0.011976608969162542
        ],
        [
          -0.05185813092695493,
          0.07327456676472636,
          0.0028732400709985256,
          -0.07196505837749745,
          -0.04012827525440454,
          0.05573381557626557,
          -0.006966107924772397,
          0.048226656275562316,
          0.0268124372138165,
          0.07806279249063168,
          0.015272370955107153,
          0.07200633735090496,
          0.06262814812966992,
          0.01802437164188206,
          0.03508383380415474,
          0.000764506371904311
        ],
        [
          0.05815672147094364,
          0.0020077332377868096,
          0.07521342041111753,
          0.04724089672533789,
          -0.012547270418939886,
          -0.04566137697779836,
          -0.05531193807451505,
          0.019811813709550697,
          0.057418923817193004,
          0.010541628314157047,
          0.027122592552307572,
          -0.03438862163814983,
          -0.05738267756337942,
          -0.022769942194933775,
          -0.020241611495830106,
          -0.036476678008034946
        ],
        [
          -0.003092196673243379,
          -0.04981238741266036,
          -0.06440384148116982,
          0.018683917958554636,
          0.04525222267288222,
          -0.06023018639689029,
          0.012153548498350075,
          0.009986988949227156,
          -0.03620047378834406,
          -0.05650021105143027,
          -0.02286184908864403,
          0.06222871611196303,
          -0.003006192415263601,
          0.013855473839550925,
          0.032493095421063586,
          0.053286523584549536
        ],
        [
          -0.019111701170573724,
          -0.07892503759081548,
          -0.02353532176445607,
          0.04013904792637764,
          0.056317332475184556,
          0.07260563454057914,
          -0.013383918879649216,
          0.039512545499159626,
          0.007263079745194236,
          0.017866922830158567,
          -0.045066096545836834,
          -0.04491095681931753,
          -0.010933497483081483,
          -0.07547193343490413,
          -0.02548395018546826,
          0.028714910565796465
        ],
        [
          -0.015336667138970469,
          -0.053724432043184264,
          -0.005400845930882357,
          -0.0591625803518902,
          0.019795453371722494,
          -0.0757421480805401,
          -0.016529434885226544,
          0.010392678821292346,
          -0.07554558277333001,
          0.021493435081933777,
          -0.057935794405461864,
          -0.006109830593010815,
          -0.07128720499127625,
          -0.01922747710351913,
          -0.0468696773489535,
          -0.02775688018025115
        ]
      ],
      "bias": [
        -0.00016452891103517443,
        -0.00011383077944905245,
        0.0004390230762240667,
        -0.00013451608080834084,
        -8.000251730137965e-05,
        4.429480089377155e-05,
        0.0007971695759344531,
        0.00012187397346953292,
        -6.175845816072653e-05,
        0.00034889103293234906,
        0.00041021193370273964,
        4.907234459444506e-05,
        -0.0002835493862325261,
        0.0001101553673271713,
        -0.0003088615743300092,
        -0.0007813596354046062
      ]
    },
    {
      "weights": [
        [
          0.044176970398575974
        ],
        [
          -0.04857837325483299
        ],
        [
          0.1424252987578756
        ],
        [
          0.0556980070762673
        ],
        [
          -0.065433865967328
        ],
        [
          -0.022485886892028746
        ],
        [
          -0.1465544037458762
        ],
        [
          -0.030537803783531152
        ],
        [
          0.1116919141631224
        ],
        [
          0.10666602223841469
        ],
        [
          0.060966984776021076
        ],
        [
          -0.02022839001956674
        ],
        [
          0.11388396289413615
        ],
        [
          0.10181093301287815
        ],
        [
          0.13821776489464915
        ],
        [
          -0.04465405073218974
        ]
      ],
      "bias": [
        -0.00011844808185976521
      ]
    }
  ],
  "metrics": {
    "trainLoss": 1.182541679562635,
    "validationLoss": 1.2107549852719273,
    "trainCount": 5400,
    "validationCount": 600
  },
  "trainedAt": "2026-04-16T01:38:38.958633+00:00",
  "datasetMeta": {
    "path": "C:\\Users\\user\\Desktop\\Galaxy-Power-Party-master\\tmp\\ai\\selfplay_dataset.jsonl",
    "sampleCount": 6000
  }
}